<?xml version="1.0"?>
<opencv_storage>
<cascade>
  <stageType>BOOST</stageType>
  <featureType>HAAR</featureType>
  <height>96</height>
  <width>96</width>
  <stageParams>
    <boostType>GAB</boostType>
    <minHitRate>9.9500000476837158e-01</minHitRate>
    <maxFalseAlarm>5.0000000000000000e-01</maxFalseAlarm>
    <weightTrimRate>9.4999999999999996e-01</weightTrimRate>
    <maxDepth>1</maxDepth>
    <maxWeakCount>100</maxWeakCount></stageParams>
  <featureParams>
    <maxCatCount>0</maxCatCount>
    <featSize>1</featSize>
    <mode>BASIC</mode></featureParams>
  <stageNum>6</stageNum>
  <stages>
    <!-- stage 0 -->
    <_>
      <maxWeakCount>2</maxWeakCount>
      <stageThreshold>-3.3769184350967407e-01</stageThreshold>
      <weakClassifiers>
        <_>
          <internalNodes>
            0 -1 5 -1.2967938184738159e-01</internalNodes>
          <leafValues>
            8.2222223281860352e-01 -9.2000001668930054e-01</leafValues></_>
        <_>
          <internalNodes>
            0 -1 13 -3.6850590258836746e-03</internalNodes>
          <leafValues>
            5.8230817317962646e-01 -9.3664860725402832e-01</leafValues></_></weakClassifiers></_>
    <!-- stage 1 -->
    <_>
      <maxWeakCount>2</maxWeakCount>
      <stageThreshold>-3.6441189050674438e-01</stageThreshold>
      <weakClassifiers>
        <_>
          <internalNodes>
            0 -1 9 3.6376282572746277e-02</internalNodes>
          <leafValues>
            -8.8659793138504028e-01 6.4583331346511841e-01</leafValues></_>
        <_>
          <internalNodes>
            0 -1 0 1.9030859693884850e-02</internalNodes>
          <leafValues>
            -9.4168746471405029e-01 5.2218604087829590e-01</leafValues></_></weakClassifiers></_>
    <!-- stage 2 -->
    <_>
      <maxWeakCount>3</maxWeakCount>
      <stageThreshold>-1.3290767669677734e+00</stageThreshold>
      <weakClassifiers>
        <_>
          <internalNodes>
            0 -1 12 -7.8461542725563049e-02</internalNodes>
          <leafValues>
            4.4761905074119568e-01 -8.4864866733551025e-01</leafValues></_>
        <_>
          <internalNodes>
            0 -1 1 6.0522966086864471e-03</internalNodes>
          <leafValues>
            -8.7730097770690918e-01 3.8148522377014160e-01</leafValues></_>
        <_>
          <internalNodes>
            0 -1 14 -8.2462847232818604e-02</internalNodes>
          <leafValues>
            3.9687293767929077e-01 -9.0010976791381836e-01</leafValues></_></weakClassifiers></_>
    <!-- stage 3 -->
    <_>
      <maxWeakCount>3</maxWeakCount>
      <stageThreshold>-6.6439473628997803e-01</stageThreshold>
      <weakClassifiers>
        <_>
          <internalNodes>
            0 -1 8 3.7860190868377686e-01</internalNodes>
          <leafValues>
            -6.7543858289718628e-01 7.0967739820480347e-01</leafValues></_>
        <_>
          <internalNodes>
            0 -1 10 -1.1846048291772604e-03</internalNodes>
          <leafValues>
            6.2866592407226562e-01 -6.5100806951522827e-01</leafValues></_>
        <_>
          <internalNodes>
            0 -1 3 4.1168081224896014e-04</internalNodes>
          <leafValues>
            -5.5437272787094116e-01 6.6205191612243652e-01</leafValues></_></weakClassifiers></_>
    <!-- stage 4 -->
    <_>
      <maxWeakCount>4</maxWeakCount>
      <stageThreshold>-8.0461180210113525e-01</stageThreshold>
      <weakClassifiers>
        <_>
          <internalNodes>
            0 -1 4 2.8786221519112587e-03</internalNodes>
          <leafValues>
            -8.6928105354309082e-01 1.6788321733474731e-01</leafValues></_>
        <_>
          <internalNodes>
            0 -1 7 4.6222746372222900e-02</internalNodes>
          <leafValues>
            -8.4273159503936768e-01 2.7551963925361633e-01</leafValues></_>
        <_>
          <internalNodes>
            0 -1 2 1.3708109967410564e-02</internalNodes>
          <leafValues>
            -7.6111418008804321e-01 4.9743357300758362e-01</leafValues></_>
        <_>
          <internalNodes>
            0 -1 11 7.6483309268951416e-02</internalNodes>
          <leafValues>
            -4.8690050840377808e-01 7.1303409337997437e-01</leafValues></_></weakClassifiers></_>
    <!-- stage 5 -->
    <_>
      <maxWeakCount>4</maxWeakCount>
      <stageThreshold>-7.3117226362228394e-01</stageThreshold>
      <weakClassifiers>
        <_>
          <internalNodes>
            0 -1 15 -4.4618276879191399e-03</internalNodes>
          <leafValues>
            2.0000000298023224e-01 -8.5000002384185791e-01</leafValues></_>
        <_>
          <internalNodes>
            0 -1 17 -1.5851256903260946e-03</internalNodes>
          <leafValues>
            4.8062232136726379e-01 -6.0723304748535156e-01</leafValues></_>
        <_>
          <internalNodes>
            0 -1 6 -4.3170084245502949e-04</internalNodes>
          <leafValues>
            5.3589344024658203e-01 -5.7649534940719604e-01</leafValues></_>
        <_>
          <internalNodes>
            0 -1 16 -8.4350124234333634e-04</internalNodes>
          <leafValues>
            3.5386207699775696e-01 -8.3529925346374512e-01</leafValues></_></weakClassifiers></_></stages>
  <features>
    <_>
      <rects>
        <_>
          0 57 30 24 -1.</_>
        <_>
          15 57 15 24 2.</_></rects>
      <tilted>0</tilted></_>
    <_>
      <rects>
        <_>
          1 18 12 47 -1.</_>
        <_>
          7 18 6 47 2.</_></rects>
      <tilted>0</tilted></_>
    <_>
      <rects>
        <_>
          1 66 46 7 -1.</_>
        <_>
          24 66 23 7 2.</_></rects>
      <tilted>0</tilted></_>
    <_>
      <rects>
        <_>
          2 20 23 4 -1.</_>
        <_>
          2 22 23 2 2.</_></rects>
      <tilted>0</tilted></_>
    <_>
      <rects>
        <_>
          4 26 8 39 -1.</_>
        <_>
          8 26 4 39 2.</_></rects>
      <tilted>0</tilted></_>
    <_>
      <rects>
        <_>
          5 45 71 50 -1.</_>
        <_>
          5 70 71 25 2.</_></rects>
      <tilted>0</tilted></_>
    <_>
      <rects>
        <_>
          7 72 18 6 -1.</_>
        <_>
          7 72 9 3 2.</_>
        <_>
          16 75 9 3 2.</_></rects>
      <tilted>0</tilted></_>
    <_>
      <rects>
        <_>
          10 0 62 32 -1.</_>
        <_>
          10 16 62 16 2.</_></rects>
      <tilted>0</tilted></_>
    <_>
      <rects>
        <_>
          20 0 56 96 -1.</_>
        <_>
          20 32 56 32 3.</_></rects>
      <tilted>0</tilted></_>
    <_>
      <rects>
        <_>
          22 5 47 30 -1.</_>
        <_>
          22 20 47 15 2.</_></rects>
      <tilted>0</tilted></_>
    <_>
      <rects>
        <_>
          25 82 18 6 -1.</_>
        <_>
          25 85 18 3 2.</_></rects>
      <tilted>0</tilted></_>
    <_>
      <rects>
        <_>
          30 21 61 44 -1.</_>
        <_>
          30 43 61 22 2.</_></rects>
      <tilted>0</tilted></_>
    <_>
      <rects>
        <_>
          30 52 33 44 -1.</_>
        <_>
          30 74 33 22 2.</_></rects>
      <tilted>0</tilted></_>
    <_>
      <rects>
        <_>
          40 67 47 10 -1.</_>
        <_>
          40 72 47 5 2.</_></rects>
      <tilted>0</tilted></_>
    <_>
      <rects>
        <_>
          42 11 54 81 -1.</_>
        <_>
          69 11 27 81 2.</_></rects>
      <tilted>0</tilted></_>
    <_>
      <rects>
        <_>
          55 62 29 12 -1.</_>
        <_>
          55 68 29 6 2.</_></rects>
      <tilted>0</tilted></_>
    <_>
      <rects>
        <_>
          84 20 12 36 -1.</_>
        <_>
          90 20 6 36 2.</_></rects>
      <tilted>0</tilted></_>
    <_>
      <rects>
        <_>
          90 69 6 27 -1.</_>
        <_>
          90 78 6 9 3.</_></rects>
      <tilted>0</tilted></_></features></cascade>
</opencv_storage>
