<?xml version="1.0"?>
<opencv_storage>
<cascade>
  <stageType>BOOST</stageType>
  <featureType>HAAR</featureType>
  <height>24</height>
  <width>24</width>
  <stageParams>
    <boostType>GAB</boostType>
    <minHitRate>9.9500000476837158e-001</minHitRate>
    <maxFalseAlarm>5.0000000000000000e-001</maxFalseAlarm>
    <weightTrimRate>9.4999999999999996e-001</weightTrimRate>
    <maxDepth>1</maxDepth>
    <maxWeakCount>100</maxWeakCount></stageParams>
  <featureParams>
    <maxCatCount>0</maxCatCount>
    <featSize>1</featSize>
    <mode>BASIC</mode></featureParams>
  <stageNum>2</stageNum>
  <stages>
    <!-- stage 0 -->
    <_>
      <maxWeakCount>2</maxWeakCount>
      <stageThreshold>-1.8013599514961243e-001</stageThreshold>
      <weakClassifiers>
        <_>
          <internalNodes>
            0 -1 0 -1.3634970784187317e-001</internalNodes>
          <leafValues>
            9.0697675943374634e-001 -9.6850395202636719e-001</leafValues></_>
        <_>
          <internalNodes>
            0 -1 1 9.6360340714454651e-002</internalNodes>
          <leafValues>
            -9.3946701288223267e-001 7.8836792707443237e-001</leafValues></_></weakClassifiers></_>
    <!-- stage 1 -->
    <_>
      <maxWeakCount>3</maxWeakCount>
      <stageThreshold>-8.5583972930908203e-001</stageThreshold>
      <weakClassifiers>
        <_>
          <internalNodes>
            0 -1 4 6.8201846443116665e-004</internalNodes>
          <leafValues>
            1. -9.6108949184417725e-001</leafValues></_>
        <_>
          <internalNodes>
            0 -1 2 -2.8701078146696091e-002</internalNodes>
          <leafValues>
            1. -8.9475023746490479e-001</leafValues></_>
        <_>
          <internalNodes>
            0 -1 3 -4.2407237924635410e-003</internalNodes>
          <leafValues>
            -8.7615436315536499e-001 1.</leafValues></_></weakClassifiers></_></stages>
  <features>
    <_>
      <rects>
        <_>
          2 12 18 12 -1.</_>
        <_>
          2 18 18 6 2.</_></rects>
      <tilted>0</tilted></_>
    <_>
      <rects>
        <_>
          3 0 16 10 -1.</_>
        <_>
          3 5 16 5 2.</_></rects>
      <tilted>0</tilted></_>
    <_>
      <rects>
        <_>
          3 18 20 6 -1.</_>
        <_>
          3 21 20 3 2.</_></rects>
      <tilted>0</tilted></_>
    <_>
      <rects>
        <_>
          20 10 3 14 -1.</_>
        <_>
          21 10 1 14 3.</_></rects>
      <tilted>0</tilted></_>
    <_>
      <rects>
        <_>
          21 11 2 11 -1.</_>
        <_>
          22 11 1 11 2.</_></rects>
      <tilted>0</tilted></_></features></cascade>
</opencv_storage>
